-0.9653565151416856
0.8330418089572647
-0.33808075964912077
0.3759727066284325
-0.6830534918454358
0.667951164658181
0.7984446590546939
0.7417278765853981
-0.4978436178664045
1.18869188372252
0.34420405917924923
-0.13069162146557492
-1.2382035191377618
1.6736014226822897
1.6552885433750584
0.1713089826733615
0.6012999517221816
0.6244104049665959
-0.38553663140478706
-0.2840937128193208
0.144434557788079
-0.06150780744009067
0.2797049389673665
-0.40782693918755014
-0.6749575371288294
-0.40534298242979105
-1.4183071919002677
0.6382208719169127
0.9185745755841023
-0.19484404802800492
-0.8937241427108165
-0.9047599208637513
-0.9090556762793123
0.7926771764335877
1.1911418666570524
0.09573395314662902
1.6675939730028546
0.39191518546660153
-0.20244647478260464
-0.12196595856568593
-0.024623395139368343
0.7182065388016677
0.4421168960973151
1.2916979049692434
-1.5051946728027938
-0.8577812862965203
-0.7257301269296106
0.2916365361874538
0.8419461160581603
-0.13269329223432125
0.2704565085965573
0.7201888785213276
0.07411973959352085
0.2663155888002947
1.216178045121445
0.860564526028419
0.6570049554248358
-0.1690786997950427
-0.598586835856927
-0.6197936864412895
0.006437250087428063
0.11932951474871706
0.3365094243363934
1.2498618587056318
1.3173740729041152
-0.06544000139297027
-0.3000087595735529
0.5534550452479124
0.1676521000708203
-0.5645056549432999
-0.1732774942040413
0.24266768033688718
1.1203174727701497
-0.7297421375141739
0.8274674672136657
-0.9720774823006776
-0.12464155706748994
-2.360096235951345
0.3002875036994855
0.2193849015952973
0.16994945332712572
0.7075791460302908
-1.1047018293022874
0.21510117800968578
1.0570759413620723
0.24987760353741975
-0.8082056662241613
-0.9979625152767172
-0.41883172596130647
1.526826393764544
-0.22922314618691858
-0.370938947303981
-0.531879831694516
-0.31623654922172373
1.2342731094275101
0.6417843324963011
-0.9032792091334004
1.1812843684619485
0.6505819417267592
1.3730316259153634
-0.4631601130397841
0.479611356295486
-0.7830417641386294
1.1007873422001928
-1.2395057877214164
-0.7627503387184259
0.766791433421578
1.0735976416675137
-1.1065634028574862
-0.06563515905255568
-0.7428010468095381
-0.31182638101394866
-0.6049950126694674
-0.03417163945046048
-1.353626683866923
-1.4607100559771578
0.4588170143893396
-1.2737625086136772
0.7722167388247738
-0.4582314931768411
0.49232193419261017
0.4352165064970022
-0.5404890854194696
-1.2505303942088521
-0.296904358141484
-0.13424730985424757
-0.8612881151992228
0.23534939269941307
-1.0013130512266124
1.264187072332083
-0.5307804308708085
-0.28349333057965476
1.0893002839640973
-0.21165610135797414
-0.1989624748351646
0.0646863589561362
-1.1724258430533823
-1.2311490008894403
-0.07689446673294113
0.08996911726240522
-0.47762256988930396
-0.02026220541628422
-0.4928450776188223
0.5371483555036024
-0.040503992372520406
-0.08908005186433726
-1.5523399097039077
1.4595377490056076
0.5018829391070025
-1.2373551546404444
-0.5842057480850198
0.8618778331949348
-0.5362658127343107
-0.9051915532583603
-0.05778248810782009
-0.8181272231671137
0.5125439590745451
0.9116044669894603
-0.3151125035462441
-1.0850588761586886
-0.07391473979526628
-0.3869603346658038
1.0587228649713696
0.09894714168800078
-0.003606682390479952
-0.4226470008357037
-0.04633641237298189
0.5865830226661691
-1.2857072065097537
-1.3663015449572113
1.0754249715219992
0.9242182013645668
0.6162005474003082
0.848359871814591
-0.10130959851190047
-1.7578502380971066
0.5578564176274283
-1.850847502830205
0.6878499849143317
0.2648829972273679
1.085468097045494
-1.182855627030748
0.05505166633143417
0.18897373753148836
-1.087795990016726
-0.42522841443122833
-0.5992898945757107
1.0237017116449807
-0.009965590748000491
-1.4452414768532547
0.08814576465457906
0.7575772665653083
-1.684506834076978
0.218323554819406
-0.3785247735678092
-0.16337682130888342
-0.13886723762082764
0.41404114953019183
-0.18932028604288503
-0.8218865185363375
0.7719319791916177
0.044992707633276105
1.501867745181418
-0.4715706264322044
-0.5846503488466273
-0.98309230936181
-0.9980179343858101
-0.965763359575403
-1.2068223890486012
-0.6884068630418471
0.03026959688386363
0.6120446004890059
0.9186225465189966
0.21246331873483468
0.19977468529527967
-0.16744908892791377
-0.37043536614108336
0.28277635544630486
-1.139503561551571
0.5026371957038825
-0.4819865909519137
-0.31032001809251647
1.5089423434766824
0.9165324902109266
0.22371109469010814
-0.4904207564129607
-0.15329194417591818
0.8128504097056255
-0.3094296406646502
-2.110293683873039
-0.8366737138572515
0.05191407962861605
-0.912330037621552
0.457422946239937
-0.2757115854831445
-0.6553432543673399
0.8773126936033208
-1.1643857529794062
0.2522081177226489
-1.8400100608506582
2.7419282561520317
0.7685361993307327
0.05781540343099413
1.799046362698492
0.4331820427092577
1.7307417355791088
0.8725302275798603
-0.9151484200954934
1.0739562257895614
0.8411086520628281
0.4006630274569897
-1.1237435375961324
0.8132857503688227
0.3308193381501684
1.05692835839884
-0.10290803855324847
0.9768688833888559
0.4082224923207156
1.2685515410739723
-0.7685413763080916
-0.24276230978380844
-1.1551610715642546
-0.9066515074344921
-0.5145416896940473
0.9660780076258071
